<?xml version="1.0" encoding="UTF-8" standalone="yes"?>
<PMML xmlns="http://www.dmg.org/PMML-4_4" xmlns:data="http://jpmml.org/jpmml-model/InlineTable" version="4.4">
	<Header>
		<Application name="SkLearn2PMML package" version="0.122.0"/>
		<Timestamp>2025-09-10T04:44:39Z</Timestamp>
	</Header>
	<MiningBuildTask>
		<Extension name="repr">PMMLPipeline(steps=[('preprocessor', ColumnTransformer(transformers=[('text', TfidfVectorizer(norm=None),
                                 'interest_emoji'),
                                ('cat', OneHotEncoder(handle_unknown='ignore'),
                                 ['qualification', 'branch']),
                                ('numeric', 'passthrough',
                                 ['distance_km', 'R1_qual_met', 'R2_dist_ok',
                                  'R3_branch_match'])])),
       ('classifier', LGBMClassifier(colsample_bytree=0.8, max_depth=8, random_state=42,
               subsample=0.8))])</Extension>
	</MiningBuildTask>
	<DataDictionary>
		<DataField name="accepted" optype="categorical" dataType="integer">
			<Value value="0"/>
			<Value value="1"/>
		</DataField>
		<DataField name="qualification" optype="categorical" dataType="string">
			<Value value="12th"/>
			<Value value="B.Tech"/>
			<Value value="BA"/>
			<Value value="Diploma"/>
			<Value value="ITI"/>
			<Value value="MBA"/>
		</DataField>
		<DataField name="branch" optype="categorical" dataType="string">
			<Value value="Arts"/>
			<Value value="CS"/>
			<Value value="Civil"/>
			<Value value="Comm"/>
			<Value value="Elec"/>
			<Value value="Mech"/>
		</DataField>
		<DataField name="interest_emoji" optype="categorical" dataType="string"/>
		<DataField name="distance_km" optype="continuous" dataType="double">
			<Value value="NaN" property="missing"/>
		</DataField>
		<DataField name="R1_qual_met" optype="continuous" dataType="double">
			<Value value="NaN" property="missing"/>
		</DataField>
		<DataField name="R2_dist_ok" optype="continuous" dataType="double">
			<Value value="NaN" property="missing"/>
		</DataField>
		<DataField name="R3_branch_match" optype="continuous" dataType="double">
			<Value value="NaN" property="missing"/>
		</DataField>
	</DataDictionary>
	<TransformationDictionary>
		<DefineFunction name="tf-idf(lowercase(interest_emoji))" optype="continuous" dataType="double">
			<ParameterField name="document"/>
			<ParameterField name="term"/>
			<ParameterField name="weight"/>
			<Apply function="*">
				<TextIndex textField="document" x-wordRE="(?u)\b\w\w+\b">
					<FieldRef field="term"/>
				</TextIndex>
				<FieldRef field="weight"/>
			</Apply>
		</DefineFunction>
	</TransformationDictionary>
	<MiningModel functionName="classification" algorithmName="LightGBM">
		<MiningSchema>
			<Extension name="X-FeatureImportances">
				<InlineTable>
					<Extension name="numberOfImportances" value="22"/>
					<Extension name="numberOfNonZeroImportances" value="22"/>
					<Extension name="sumOfImportances" value="3000.0"/>
					<Extension name="minImportance" value="11.0"/>
					<Extension name="maxImportance" value="1214.0"/>
					<row>
						<data:name>R2_dist_ok</data:name>
						<data:importance>11.0</data:importance>
					</row>
					<row>
						<data:name>branch=Comm</data:name>
						<data:importance>104.0</data:importance>
					</row>
					<row>
						<data:name>tf-idf(lowercase(interest_emoji), design)</data:name>
						<data:importance>86.0</data:importance>
					</row>
					<row>
						<data:name>branch=Civil</data:name>
						<data:importance>68.0</data:importance>
					</row>
					<row>
						<data:name>R1_qual_met</data:name>
						<data:importance>146.0</data:importance>
					</row>
					<row>
						<data:name>qualification=12th</data:name>
						<data:importance>97.0</data:importance>
					</row>
					<row>
						<data:name>qualification=MBA</data:name>
						<data:importance>77.0</data:importance>
					</row>
					<row>
						<data:name>qualification=Diploma</data:name>
						<data:importance>111.0</data:importance>
					</row>
					<row>
						<data:name>branch=Arts</data:name>
						<data:importance>79.0</data:importance>
					</row>
					<row>
						<data:name>distance_km</data:name>
						<data:importance>1214.0</data:importance>
					</row>
					<row>
						<data:name>branch=CS</data:name>
						<data:importance>80.0</data:importance>
					</row>
					<row>
						<data:name>tf-idf(lowercase(interest_emoji), finance)</data:name>
						<data:importance>87.0</data:importance>
					</row>
					<row>
						<data:name>qualification=B.Tech</data:name>
						<data:importance>61.0</data:importance>
					</row>
					<row>
						<data:name>tf-idf(lowercase(interest_emoji), books)</data:name>
						<data:importance>101.0</data:importance>
					</row>
					<row>
						<data:name>tf-idf(lowercase(interest_emoji), people)</data:name>
						<data:importance>83.0</data:importance>
					</row>
					<row>
						<data:name>qualification=ITI</data:name>
						<data:importance>81.0</data:importance>
					</row>
					<row>
						<data:name>branch=Elec</data:name>
						<data:importance>84.0</data:importance>
					</row>
					<row>
						<data:name>tf-idf(lowercase(interest_emoji), computer)</data:name>
						<data:importance>86.0</data:importance>
					</row>
					<row>
						<data:name>tf-idf(lowercase(interest_emoji), tools)</data:name>
						<data:importance>87.0</data:importance>
					</row>
					<row>
						<data:name>qualification=BA</data:name>
						<data:importance>60.0</data:importance>
					</row>
					<row>
						<data:name>branch=Mech</data:name>
						<data:importance>87.0</data:importance>
					</row>
					<row>
						<data:name>R3_branch_match</data:name>
						<data:importance>110.0</data:importance>
					</row>
				</InlineTable>
			</Extension>
			<MiningField name="accepted" usageType="target"/>
			<MiningField name="qualification" importance="487.0" invalidValueTreatment="asIs"/>
			<MiningField name="branch" importance="502.0" invalidValueTreatment="asIs"/>
			<MiningField name="interest_emoji" importance="530.0"/>
			<MiningField name="distance_km" importance="1214.0"/>
			<MiningField name="R1_qual_met" importance="146.0"/>
			<MiningField name="R2_dist_ok" importance="11.0"/>
			<MiningField name="R3_branch_match" importance="110.0"/>
		</MiningSchema>
		<Segmentation multipleModelMethod="modelChain" missingPredictionTreatment="returnMissing">
			<Segment id="1">
				<True/>
				<MiningModel functionName="regression">
					<MiningSchema>
						<MiningField name="distance_km"/>
						<MiningField name="R1_qual_met"/>
						<MiningField name="R2_dist_ok"/>
						<MiningField name="R3_branch_match"/>
						<MiningField name="qualification"/>
						<MiningField name="branch"/>
						<MiningField name="interest_emoji"/>
					</MiningSchema>
					<Output>
						<OutputField name="lgbmValue" optype="continuous" dataType="double" isFinalResult="false"/>
					</Output>
					<LocalTransformations>
						<DerivedField name="lowercase(interest_emoji)" optype="categorical" dataType="string">
							<Apply function="lowercase">
								<FieldRef field="interest_emoji"/>
							</Apply>
						</DerivedField>
						<DerivedField name="tf-idf(lowercase(interest_emoji), books)" optype="continuous" dataType="double">
							<Apply function="tf-idf(lowercase(interest_emoji))">
								<FieldRef field="lowercase(interest_emoji)"/>
								<Constant dataType="string">books</Constant>
								<Constant dataType="double">2.766974940648833</Constant>
							</Apply>
						</DerivedField>
						<DerivedField name="tf-idf(lowercase(interest_emoji), computer)" optype="continuous" dataType="double">
							<Apply function="tf-idf(lowercase(interest_emoji))">
								<FieldRef field="lowercase(interest_emoji)"/>
								<Constant dataType="string">computer</Constant>
								<Constant dataType="double">2.7959044574312935</Constant>
							</Apply>
						</DerivedField>
						<DerivedField name="tf-idf(lowercase(interest_emoji), design)" optype="continuous" dataType="double">
							<Apply function="tf-idf(lowercase(interest_emoji))">
								<FieldRef field="lowercase(interest_emoji)"/>
								<Constant dataType="string">design</Constant>
								<Constant dataType="double">2.7909325293178355</Constant>
							</Apply>
						</DerivedField>
						<DerivedField name="tf-idf(lowercase(interest_emoji), finance)" optype="continuous" dataType="double">
							<Apply function="tf-idf(lowercase(interest_emoji))">
								<FieldRef field="lowercase(interest_emoji)"/>
								<Constant dataType="string">finance</Constant>
								<Constant dataType="double">2.8234162515537844</Constant>
							</Apply>
						</DerivedField>
						<DerivedField name="tf-idf(lowercase(interest_emoji), people)" optype="continuous" dataType="double">
							<Apply function="tf-idf(lowercase(interest_emoji))">
								<FieldRef field="lowercase(interest_emoji)"/>
								<Constant dataType="string">people</Constant>
								<Constant dataType="double">2.802386561802341</Constant>
							</Apply>
						</DerivedField>
						<DerivedField name="tf-idf(lowercase(interest_emoji), tools)" optype="continuous" dataType="double">
							<Apply function="tf-idf(lowercase(interest_emoji))">
								<FieldRef field="lowercase(interest_emoji)"/>
								<Constant dataType="string">tools</Constant>
								<Constant dataType="double">2.771108291847585</Constant>
							</Apply>
						</DerivedField>
						<DerivedField name="qualification=12th" optype="continuous" dataType="double">
							<NormDiscrete field="qualification" value="12th"/>
						</DerivedField>
						<DerivedField name="qualification=B.Tech" optype="continuous" dataType="double">
							<NormDiscrete field="qualification" value="B.Tech"/>
						</DerivedField>
						<DerivedField name="qualification=BA" optype="continuous" dataType="double">
							<NormDiscrete field="qualification" value="BA"/>
						</DerivedField>
						<DerivedField name="qualification=Diploma" optype="continuous" dataType="double">
							<NormDiscrete field="qualification" value="Diploma"/>
						</DerivedField>
						<DerivedField name="qualification=ITI" optype="continuous" dataType="double">
							<NormDiscrete field="qualification" value="ITI"/>
						</DerivedField>
						<DerivedField name="qualification=MBA" optype="continuous" dataType="double">
							<NormDiscrete field="qualification" value="MBA"/>
						</DerivedField>
						<DerivedField name="branch=Arts" optype="continuous" dataType="double">
							<NormDiscrete field="branch" value="Arts"/>
						</DerivedField>
						<DerivedField name="branch=CS" optype="continuous" dataType="double">
							<NormDiscrete field="branch" value="CS"/>
						</DerivedField>
						<DerivedField name="branch=Civil" optype="continuous" dataType="double">
							<NormDiscrete field="branch" value="Civil"/>
						</DerivedField>
						<DerivedField name="branch=Comm" optype="continuous" dataType="double">
							<NormDiscrete field="branch" value="Comm"/>
						</DerivedField>
						<DerivedField name="branch=Elec" optype="continuous" dataType="double">
							<NormDiscrete field="branch" value="Elec"/>
						</DerivedField>
						<DerivedField name="branch=Mech" optype="continuous" dataType="double">
							<NormDiscrete field="branch" value="Mech"/>
						</DerivedField>
					</LocalTransformations>
					<Segmentation multipleModelMethod="sum" missingPredictionTreatment="returnMissing">
						<Segment id="1">
							<True/>
							<TreeModel functionName="regression" noTrueChildStrategy="returnLastPrediction">
								<MiningSchema>
									<MiningField name="distance_km"/>
									<MiningField name="R1_qual_met"/>
									<MiningField name="R3_branch_match"/>
									<MiningField name="tf-idf(lowercase(interest_emoji), books)"/>
									<MiningField name="tf-idf(lowercase(interest_emoji), finance)"/>
									<MiningField name="tf-idf(lowercase(interest_emoji), people)"/>
									<MiningField name="qualification=Diploma"/>
									<MiningField name="qualification=MBA"/>
									<MiningField name="branch=Arts"/>
									<MiningField name="branch=CS"/>
									<MiningField name="branch=Elec"/>
								</MiningSchema>
								<Node score="-1.4129574402216143">
									<True/>
									<Node score="-1.4318492915669552">
										<SimplePredicate field="R3_branch_match" operator="greaterThan" value="1.0000000180025095E-35"/>
										<Node score="-1.1524656397969917">
											<SimplePredicate field="R1_qual_met" operator="greaterThan" value="1.0000000180025095E-35"/>
											<Node score="-1.064012900906396">
												<SimplePredicate field="distance_km" operator="greaterThan" value="158.62259913317186"/>
												<Node score="-1.1070551497939178">
													<SimplePredicate field="distance_km" operator="greaterThan" value="3294.3996005728236"/>
												</Node>
												<Node score="-1.0292819802637665">
													<SimplePredicate field="distance_km" operator="greaterThan" value="3019.850205093014"/>
													<Node score="-0.9529438378954401">
														<SimplePredicate field="tf-idf(lowercase(interest_emoji), finance)" operator="greaterThan" value="1.0000000180025095E-35"/>
													</Node>
													<Node score="-1.108390752441067">
														<SimplePredicate field="branch=Arts" operator="greaterThan" value="1.0000000180025095E-35"/>
													</Node>
												</Node>
												<Node score="-1.0624201710053178">
													<SimplePredicate field="distance_km" operator="greaterThan" value="2915.087435750877"/>
													<Node score="-1.2127013191834222">
														<SimplePredicate field="branch=Elec" operator="greaterThan" value="1.0000000180025095E-35"/>
													</Node>
													<Node score="-1.181848898034275">
														<SimplePredicate field="qualification=MBA" operator="greaterThan" value="1.0000000180025095E-35"/>
													</Node>
												</Node>
												<Node score="-1.0279171179967734">
													<SimplePredicate field="distance_km" operator="greaterThan" value="2059.2067671964055"/>
													<Node score="-1.059158994206807">
														<SimplePredicate field="distance_km" operator="greaterThan" value="2267.4277999460005"/>
													</Node>
												</Node>
												<Node score="-1.0446009951281416">
													<SimplePredicate field="qualification=Diploma" operator="greaterThan" value="1.0000000180025095E-35"/>
												</Node>
											</Node>
										</Node>
									</Node>
									<Node score="-1.4369920875961382">
										<SimplePredicate field="distance_km" operator="greaterThan" value="2595.1934362321817"/>
									</Node>
									<Node score="-1.3623064556990987">
										<SimplePredicate field="distance_km" operator="greaterThan" value="2521.892492188241"/>
										<Node score="-1.303388738924855">
											<SimplePredicate field="branch=Arts" operator="greaterThan" value="1.0000000180025095E-35"/>
											<Node score="-1.3916453618484765">
												<SimplePredicate field="distance_km" operator="greaterThan" value="2565.992430338865"/>
											</Node>
										</Node>
										<Node score="-1.4713870042031956">
											<SimplePredicate field="tf-idf(lowercase(interest_emoji), people)" operator="greaterThan" value="1.0000000180025095E-35"/>
										</Node>
										<Node score="-1.4643006409490036">
											<SimplePredicate field="distance_km" operator="greaterThan" value="2538.431162281841"/>
											<Node score="-1.3954425829129868">
												<SimplePredicate field="distance_km" operator="greaterThan" value="2550.9399430338635"/>
												<Node score="-1.460273186453409">
													<SimplePredicate field="tf-idf(lowercase(interest_emoji), books)" operator="greaterThan" value="1.0000000180025095E-35"/>
												</Node>
											</Node>
										</Node>
									</Node>
									<Node score="-1.4411672690434059">
										<SimplePredicate field="qualification=MBA" operator="greaterThan" value="1.0000000180025095E-35"/>
										<Node score="-1.3279919455828673">
											<SimplePredicate field="distance_km" operator="greaterThan" value="1416.7806072179185"/>
											<Node score="-1.4723570971758808">
												<SimplePredicate field="distance_km" operator="greaterThan" value="1436.6536601048595"/>
												<Node score="-1.3938120967688745">
													<SimplePredicate field="branch=CS" operator="greaterThan" value="1.0000000180025095E-35"/>
													<Node score="-1.467519464230083">
														<SimplePredicate field="tf-idf(lowercase(interest_emoji), people)" operator="greaterThan" value="1.0000000180025095E-35"/>
													</Node>
												</Node>
												<Node score="-1.4302771358149855">
													<SimplePredicate field="distance_km" operator="greaterThan" value="1531.5063345667356"/>
												</Node>
											</Node>
										</Node>
									</Node>
									<Node score="-1.4287136885320526">
										<SimplePredicate field="distance_km" operator="greaterThan" value="254.61843986190584"/>
									</Node>
									<Node score="-1.4573169440088043">
										<SimplePredicate field="tf-idf(lowercase(interest_emoji), people)" operator="greaterThan" value="1.0000000180025095E-35"/>
									</Node>
									<Node score="-1.358870986594956">
										<SimplePredicate field="distance_km" operator="greaterThan" value="228.3778833583848"/>
									</Node>
								</Node>
							</TreeModel>
						</Segment>
						<Segment id="2">
							<True/>
							<TreeModel functionName="regression" noTrueChildStrategy="returnLastPrediction">
								<MiningSchema>
									<MiningField name="R1_qual_met"/>
									<MiningField name="R3_branch_match"/>
									<MiningField name="tf-idf(lowercase(interest_emoji), books)"/>
									<MiningField name="tf-idf(lowercase(interest_emoji), computer)"/>
									<MiningField name="tf-idf(lowercase(interest_emoji), design)"/>
									<MiningField name="tf-idf(lowercase(interest_emoji), finance)"/>
									<MiningField name="tf-idf(lowercase(interest_emoji), people)"/>
									<MiningField name="tf-idf(lowercase(interest_emoji), tools)"/>
									<MiningField name="qualification=12th"/>
									<MiningField name="qualification=B.Tech"/>
									<MiningField name="qualification=BA"/>
									<MiningField name="qualification=Diploma"/>
									<MiningField name="qualification=MBA"/>
									<MiningField name="branch=Arts"/>
									<MiningField name="branch=CS"/>
									<MiningField name="branch=Civil"/>
									<MiningField name="branch=Comm"/>
								</MiningSchema>
								<Node score="-0.061906815107729087">
									<True/>
									<Node score="-0.05874908468938176">
										<SimplePredicate field="R3_branch_match" operator="greaterThan" value="1.0000000180025095E-35"/>
										<Node score="0.22908680682064803">
											<SimplePredicate field="R1_qual_met" operator="greaterThan" value="1.0000000180025095E-35"/>
											<Node score="0.20556926798645395">
												<SimplePredicate field="branch=Comm" operator="greaterThan" value="1.0000000180025095E-35"/>
												<Node score="0.27421251532628343">
													<SimplePredicate field="tf-idf(lowercase(interest_emoji), people)" operator="greaterThan" value="1.0000000180025095E-35"/>
													<Node score="0.20467792370402776">
														<SimplePredicate field="qualification=Diploma" operator="greaterThan" value="1.0000000180025095E-35"/>
													</Node>
												</Node>
												<Node score="0.2656826296885838">
													<SimplePredicate field="qualification=12th" operator="greaterThan" value="1.0000000180025095E-35"/>
												</Node>
												<Node score="0.24733210771126557">
													<SimplePredicate field="qualification=Diploma" operator="greaterThan" value="1.0000000180025095E-35"/>
													<Node score="0.18406763148311325">
														<SimplePredicate field="tf-idf(lowercase(interest_emoji), tools)" operator="greaterThan" value="1.0000000180025095E-35"/>
													</Node>
												</Node>
												<Node score="0.25351761857811334">
													<SimplePredicate field="tf-idf(lowercase(interest_emoji), design)" operator="greaterThan" value="1.0000000180025095E-35"/>
													<Node score="0.1631106976612887">
														<SimplePredicate field="qualification=B.Tech" operator="greaterThan" value="1.0000000180025095E-35"/>
													</Node>
												</Node>
											</Node>
											<Node score="0.22725975046781324">
												<SimplePredicate field="tf-idf(lowercase(interest_emoji), people)" operator="greaterThan" value="1.0000000180025095E-35"/>
												<Node score="0.17089149614168606">
													<SimplePredicate field="branch=Arts" operator="greaterThan" value="1.0000000180025095E-35"/>
													<Node score="0.25157517287262615">
														<SimplePredicate field="qualification=MBA" operator="greaterThan" value="1.0000000180025095E-35"/>
													</Node>
													<Node score="0.21457472147825302">
														<SimplePredicate field="qualification=B.Tech" operator="greaterThan" value="1.0000000180025095E-35"/>
													</Node>
												</Node>
											</Node>
											<Node score="0.23902194611979488">
												<SimplePredicate field="qualification=BA" operator="greaterThan" value="1.0000000180025095E-35"/>
												<Node score="0.20933684416075626">
													<SimplePredicate field="tf-idf(lowercase(interest_emoji), books)" operator="greaterThan" value="1.0000000180025095E-35"/>
												</Node>
												<Node score="0.2521169065107017">
													<SimplePredicate field="branch=Arts" operator="greaterThan" value="1.0000000180025095E-35"/>
													<Node score="0.32807049749771877">
														<SimplePredicate field="tf-idf(lowercase(interest_emoji), finance)" operator="greaterThan" value="1.0000000180025095E-35"/>
													</Node>
												</Node>
												<Node score="0.26661673311805906">
													<SimplePredicate field="tf-idf(lowercase(interest_emoji), design)" operator="greaterThan" value="1.0000000180025095E-35"/>
												</Node>
											</Node>
											<Node score="0.24569635937580103">
												<SimplePredicate field="tf-idf(lowercase(interest_emoji), books)" operator="greaterThan" value="1.0000000180025095E-35"/>
												<Node score="0.28828938798260734">
													<SimplePredicate field="qualification=Diploma" operator="greaterThan" value="1.0000000180025095E-35"/>
												</Node>
												<Node score="0.2186128532701715">
													<SimplePredicate field="qualification=MBA" operator="greaterThan" value="1.0000000180025095E-35"/>
												</Node>
											</Node>
										</Node>
										<Node score="-0.07203337288586813">
											<SimplePredicate field="branch=CS" operator="greaterThan" value="1.0000000180025095E-35"/>
										</Node>
										<Node score="-0.060164685907929595">
											<SimplePredicate field="branch=Comm" operator="greaterThan" value="1.0000000180025095E-35"/>
											<Node score="-0.09739059240139104">
												<SimplePredicate field="tf-idf(lowercase(interest_emoji), people)" operator="greaterThan" value="1.0000000180025095E-35"/>
											</Node>
											<Node score="-0.09329000760347683">
												<SimplePredicate field="tf-idf(lowercase(interest_emoji), design)" operator="greaterThan" value="1.0000000180025095E-35"/>
											</Node>
										</Node>
									</Node>
									<Node score="-0.051974962941404496">
										<SimplePredicate field="tf-idf(lowercase(interest_emoji), computer)" operator="greaterThan" value="1.0000000180025095E-35"/>
										<Node score="-0.06015599018080027">
											<SimplePredicate field="qualification=MBA" operator="greaterThan" value="1.0000000180025095E-35"/>
											<Node score="-0.09267381074201728">
												<SimplePredicate field="branch=Civil" operator="greaterThan" value="1.0000000180025095E-35"/>
											</Node>
										</Node>
										<Node score="-0.0652875434613283">
											<SimplePredicate field="qualification=12th" operator="greaterThan" value="1.0000000180025095E-35"/>
										</Node>
									</Node>
								</Node>
							</TreeModel>
						</Segment>
						<Segment id="3">
							<True/>
							<TreeModel functionName="regression" noTrueChildStrategy="returnLastPrediction">
								<MiningSchema>
									<MiningField name="R1_qual_met"/>
									<MiningField name="R3_branch_match"/>
									<MiningField name="tf-idf(lowercase(interest_emoji), computer)"/>
									<MiningField name="tf-idf(lowercase(interest_emoji), design)"/>
									<MiningField name="tf-idf(lowercase(interest_emoji), finance)"/>
									<MiningField name="tf-idf(lowercase(interest_emoji), people)"/>
									<MiningField name="tf-idf(lowercase(interest_emoji), tools)"/>
									<MiningField name="qualification=12th"/>
									<MiningField name="qualification=B.Tech"/>
									<MiningField name="qualification=Diploma"/>
									<MiningField name="qualification=ITI"/>
									<MiningField name="qualification=MBA"/>
									<MiningField name="branch=Arts"/>
									<MiningField name="branch=Comm"/>
									<MiningField name="branch=Elec"/>
									<MiningField name="branch=Mech"/>
								</MiningSchema>
								<Node score="-0.05626905092473538">
									<True/>
									<Node score="-0.06242469442409822">
										<SimplePredicate field="R3_branch_match" operator="greaterThan" value="1.0000000180025095E-35"/>
										<Node score="0.18808459595073387">
											<SimplePredicate field="R1_qual_met" operator="greaterThan" value="1.0000000180025095E-35"/>
											<Node score="0.20362679494537528">
												<SimplePredicate field="branch=Mech" operator="greaterThan" value="1.0000000180025095E-35"/>
												<Node score="0.15509183142537591">
													<SimplePredicate field="qualification=12th" operator="greaterThan" value="1.0000000180025095E-35"/>
												</Node>
												<Node score="0.17747208766916298">
													<SimplePredicate field="tf-idf(lowercase(interest_emoji), people)" operator="greaterThan" value="1.0000000180025095E-35"/>
												</Node>
												<Node score="0.1796622018667067">
													<SimplePredicate field="qualification=B.Tech" operator="greaterThan" value="1.0000000180025095E-35"/>
												</Node>
											</Node>
											<Node score="0.2050685334602923">
												<SimplePredicate field="tf-idf(lowercase(interest_emoji), tools)" operator="greaterThan" value="1.0000000180025095E-35"/>
												<Node score="0.10336910552430441">
													<SimplePredicate field="qualification=ITI" operator="greaterThan" value="1.0000000180025095E-35"/>
												</Node>
												<Node score="0.1666687501083941">
													<SimplePredicate field="branch=Comm" operator="greaterThan" value="1.0000000180025095E-35"/>
												</Node>
												<Node score="0.17795825929742368">
													<SimplePredicate field="branch=Arts" operator="greaterThan" value="1.0000000180025095E-35"/>
													<Node score="0.11573679718568444">
														<SimplePredicate field="qualification=Diploma" operator="greaterThan" value="1.0000000180025095E-35"/>
													</Node>
												</Node>
												<Node score="0.1668764543974821">
													<SimplePredicate field="qualification=B.Tech" operator="greaterThan" value="1.0000000180025095E-35"/>
												</Node>
											</Node>
											<Node score="0.19113344093736276">
												<SimplePredicate field="qualification=12th" operator="greaterThan" value="1.0000000180025095E-35"/>
												<Node score="0.27077955933361036">
													<SimplePredicate field="tf-idf(lowercase(interest_emoji), finance)" operator="greaterThan" value="1.0000000180025095E-35"/>
												</Node>
												<Node score="0.2544897044062016">
													<SimplePredicate field="branch=Comm" operator="greaterThan" value="1.0000000180025095E-35"/>
												</Node>
												<Node score="0.14465623760776833">
													<SimplePredicate field="tf-idf(lowercase(interest_emoji), design)" operator="greaterThan" value="1.0000000180025095E-35"/>
												</Node>
											</Node>
											<Node score="0.1798132385607126">
												<SimplePredicate field="qualification=MBA" operator="greaterThan" value="1.0000000180025095E-35"/>
											</Node>
										</Node>
										<Node score="-0.05508714903384159">
											<SimplePredicate field="qualification=ITI" operator="greaterThan" value="1.0000000180025095E-35"/>
											<Node score="-0.04124035491331576">
												<SimplePredicate field="tf-idf(lowercase(interest_emoji), design)" operator="greaterThan" value="1.0000000180025095E-35"/>
												<Node score="0.03299263217041819">
													<SimplePredicate field="branch=Elec" operator="greaterThan" value="1.0000000180025095E-35"/>
												</Node>
											</Node>
										</Node>
									</Node>
									<Node score="-0.06437576964297505">
										<SimplePredicate field="branch=Mech" operator="greaterThan" value="1.0000000180025095E-35"/>
										<Node score="-0.08069461090957068">
											<SimplePredicate field="qualification=Diploma" operator="greaterThan" value="1.0000000180025095E-35"/>
											<Node score="-0.007121573973862951">
												<SimplePredicate field="tf-idf(lowercase(interest_emoji), computer)" operator="greaterThan" value="1.0000000180025095E-35"/>
											</Node>
											<Node score="0.010839631377514472">
												<SimplePredicate field="tf-idf(lowercase(interest_emoji), tools)" operator="greaterThan" value="1.0000000180025095E-35"/>
												<Node score="-0.06187394740621408">
													<SimplePredicate field="R1_qual_met" operator="greaterThan" value="1.0000000180025095E-35"/>
												</Node>
											</Node>
											<Node score="-0.0055650878051871485">
												<SimplePredicate field="tf-idf(lowercase(interest_emoji), design)" operator="greaterThan" value="1.0000000180025095E-35"/>
												<Node score="-0.0627770681195039">
													<SimplePredicate field="R1_qual_met" operator="greaterThan" value="1.0000000180025095E-35"/>
												</Node>
											</Node>
										</Node>
										<Node score="-0.08237011535626951">
											<SimplePredicate field="tf-idf(lowercase(interest_emoji), tools)" operator="greaterThan" value="1.0000000180025095E-35"/>
											<Node score="-0.04507916994614361">
												<SimplePredicate field="qualification=ITI" operator="greaterThan" value="1.0000000180025095E-35"/>
											</Node>
										</Node>
										<Node score="-0.05189761263113412">
											<SimplePredicate field="qualification=12th" operator="greaterThan" value="1.0000000180025095E-35"/>
										</Node>
									</Node>
								</Node>
							</TreeModel>
						</Segment>
						<Segment id="4">
							<True/>
							<TreeModel functionName="regression" noTrueChildStrategy="returnLastPrediction">
								<MiningSchema>
									<MiningField name="distance_km"/>
									<MiningField name="R1_qual_met"/>
									<MiningField name="tf-idf(lowercase(interest_emoji), computer)"/>
									<MiningField name="tf-idf(lowercase(interest_emoji), design)"/>
									<MiningField name="tf-idf(lowercase(interest_emoji), finance)"/>
									<MiningField name="tf-idf(lowercase(interest_emoji), people)"/>
									<MiningField name="tf-idf(lowercase(interest_emoji), tools)"/>
									<MiningField name="qualification=B.Tech"/>
									<MiningField name="qualification=ITI"/>
									<MiningField name="qualification=MBA"/>
									<MiningField name="branch=Arts"/>
									<MiningField name="branch=Civil"/>
									<MiningField name="branch=Comm"/>
									<MiningField name="branch=Elec"/>
								</MiningSchema>
								<Node score="-0.05552033683421094">
									<True/>
									<Node score="0.026059692856639484">
										<SimplePredicate field="R1_qual_met" operator="greaterThan" value="1.0000000180025095E-35"/>
										<Node score="0.05482196305865971">
											<SimplePredicate field="distance_km" operator="greaterThan" value="1513.5619889949828"/>
											<Node score="0.026834529768593757">
												<SimplePredicate field="distance_km" operator="greaterThan" value="1590.7440454151454"/>
												<Node score="0.03351893735181073">
													<SimplePredicate field="tf-idf(lowercase(interest_emoji), computer)" operator="greaterThan" value="1.0000000180025095E-35"/>
													<Node score="0.023572608192576894">
														<SimplePredicate field="distance_km" operator="greaterThan" value="2407.348824751764"/>
													</Node>
													<Node score="0.07234562519234666">
														<SimplePredicate field="distance_km" operator="greaterThan" value="2161.10620567707"/>
													</Node>
												</Node>
											</Node>
											<Node score="0.011555679471739709">
												<SimplePredicate field="tf-idf(lowercase(interest_emoji), finance)" operator="greaterThan" value="1.0000000180025095E-35"/>
											</Node>
										</Node>
										<Node score="-0.021915936208721346">
											<SimplePredicate field="distance_km" operator="greaterThan" value="1444.516634500897"/>
											<Node score="0.04116495962554581">
												<SimplePredicate field="tf-idf(lowercase(interest_emoji), computer)" operator="greaterThan" value="1.0000000180025095E-35"/>
											</Node>
											<Node score="0.037197299170029695">
												<SimplePredicate field="tf-idf(lowercase(interest_emoji), design)" operator="greaterThan" value="1.0000000180025095E-35"/>
											</Node>
										</Node>
										<Node score="0.08282657256151976">
											<SimplePredicate field="distance_km" operator="greaterThan" value="1374.1452316630578"/>
											<Node score="0.11645747476558287">
												<SimplePredicate field="tf-idf(lowercase(interest_emoji), tools)" operator="greaterThan" value="1.0000000180025095E-35"/>
												<Node score="0.02562684028691531">
													<SimplePredicate field="qualification=B.Tech" operator="greaterThan" value="1.0000000180025095E-35"/>
												</Node>
											</Node>
											<Node score="0.012676230561885389">
												<SimplePredicate field="qualification=MBA" operator="greaterThan" value="1.0000000180025095E-35"/>
											</Node>
											<Node score="0.0076859184047399515">
												<SimplePredicate field="branch=Elec" operator="greaterThan" value="1.0000000180025095E-35"/>
											</Node>
											<Node score="0.003257586168795403">
												<SimplePredicate field="branch=Arts" operator="greaterThan" value="1.0000000180025095E-35"/>
											</Node>
										</Node>
										<Node score="-0.014252690577351741">
											<SimplePredicate field="distance_km" operator="greaterThan" value="1245.7597444409641"/>
											<Node score="-0.007779143687153137">
												<SimplePredicate field="distance_km" operator="greaterThan" value="1264.378077384718"/>
												<Node score="0.01838797601303328">
													<SimplePredicate field="tf-idf(lowercase(interest_emoji), people)" operator="greaterThan" value="1.0000000180025095E-35"/>
													<Node score="0.10617415317646242">
														<SimplePredicate field="branch=Comm" operator="greaterThan" value="1.0000000180025095E-35"/>
													</Node>
												</Node>
												<Node score="0.0374957165524838">
													<SimplePredicate field="branch=Civil" operator="greaterThan" value="1.0000000180025095E-35"/>
												</Node>
											</Node>
											<Node score="-0.10427294352436976">
												<SimplePredicate field="tf-idf(lowercase(interest_emoji), people)" operator="greaterThan" value="1.0000000180025095E-35"/>
											</Node>
										</Node>
										<Node score="0.048586581382896836">
											<SimplePredicate field="distance_km" operator="greaterThan" value="1123.0291166998984"/>
											<Node score="0.010640836336575485">
												<SimplePredicate field="branch=Arts" operator="greaterThan" value="1.0000000180025095E-35"/>
											</Node>
											<Node score="0.0024181404472920025">
												<SimplePredicate field="qualification=ITI" operator="greaterThan" value="1.0000000180025095E-35"/>
											</Node>
										</Node>
										<Node score="-0.005426745723667407">
											<SimplePredicate field="distance_km" operator="greaterThan" value="983.8813737841941"/>
											<Node score="0.020123421267166992">
												<SimplePredicate field="distance_km" operator="greaterThan" value="1028.6100105576022"/>
											</Node>
										</Node>
										<Node score="0.052384168044286396">
											<SimplePredicate field="distance_km" operator="greaterThan" value="945.0714237994795"/>
										</Node>
									</Node>
									<Node score="-0.04677256183901048">
										<SimplePredicate field="qualification=ITI" operator="greaterThan" value="1.0000000180025095E-35"/>
									</Node>
									<Node score="-0.09292139820743002">
										<SimplePredicate field="distance_km" operator="greaterThan" value="3232.4321862692996"/>
									</Node>
								</Node>
							</TreeModel>
						</Segment>
						<Segment id="5">
							<True/>
							<TreeModel functionName="regression" noTrueChildStrategy="returnLastPrediction">
								<MiningSchema>
									<MiningField name="distance_km"/>
									<MiningField name="R1_qual_met"/>
									<MiningField name="R3_branch_match"/>
									<MiningField name="tf-idf(lowercase(interest_emoji), books)"/>
									<MiningField name="tf-idf(lowercase(interest_emoji), computer)"/>
									<MiningField name="tf-idf(lowercase(interest_emoji), design)"/>
									<MiningField name="tf-idf(lowercase(interest_emoji), finance)"/>
									<MiningField name="qualification=12th"/>
									<MiningField name="qualification=Diploma"/>
									<MiningField name="qualification=ITI"/>
									<MiningField name="branch=Mech"/>
								</MiningSchema>
								<Node score="0.016964462371293915">
									<True/>
									<Node score="-0.05185609426770084">
										<SimplePredicate field="R3_branch_match" operator="greaterThan" value="1.0000000180025095E-35"/>
										<Node score="0.09856657304883523">
											<SimplePredicate field="R1_qual_met" operator="greaterThan" value="1.0000000180025095E-35"/>
											<Node score="0.15280754914299186">
												<SimplePredicate field="distance_km" operator="greaterThan" value="158.62259913317186"/>
											</Node>
										</Node>
									</Node>
									<Node score="-0.05338450921044155">
										<SimplePredicate field="R1_qual_met" operator="greaterThan" value="1.0000000180025095E-35"/>
										<Node score="-0.06482619261812274">
											<SimplePredicate field="qualification=ITI" operator="greaterThan" value="1.0000000180025095E-35"/>
										</Node>
										<Node score="-0.06735118733815401">
											<SimplePredicate field="branch=Mech" operator="greaterThan" value="1.0000000180025095E-35"/>
											<Node score="-0.048825307443180956">
												<SimplePredicate field="tf-idf(lowercase(interest_emoji), computer)" operator="greaterThan" value="1.0000000180025095E-35"/>
												<Node score="-0.04417429103973047">
													<SimplePredicate field="qualification=Diploma" operator="greaterThan" value="1.0000000180025095E-35"/>
													<Node score="0.05082352684408367">
														<SimplePredicate field="distance_km" operator="greaterThan" value="1715.8093052485617"/>
													</Node>
												</Node>
												<Node score="-0.09860822774227807">
													<SimplePredicate field="distance_km" operator="greaterThan" value="1669.2242364174267"/>
													<Node score="-0.01074929504823706">
														<SimplePredicate field="distance_km" operator="greaterThan" value="2550.9399430338635"/>
													</Node>
												</Node>
												<Node score="0.07010895107964549">
													<SimplePredicate field="distance_km" operator="greaterThan" value="1513.5619889949828"/>
												</Node>
											</Node>
											<Node score="0.018712864246105406">
												<SimplePredicate field="distance_km" operator="greaterThan" value="2915.087435750877"/>
												<Node score="-0.07656537610368444">
													<SimplePredicate field="distance_km" operator="greaterThan" value="3129.8683524562935"/>
												</Node>
											</Node>
											<Node score="-0.1025589306159491">
												<SimplePredicate field="distance_km" operator="greaterThan" value="2395.9202083777695"/>
											</Node>
											<Node score="-0.04172063497076853">
												<SimplePredicate field="tf-idf(lowercase(interest_emoji), design)" operator="greaterThan" value="1.0000000180025095E-35"/>
											</Node>
										</Node>
									</Node>
									<Node score="-0.08294648426946212">
										<SimplePredicate field="distance_km" operator="greaterThan" value="2151.453800300904"/>
										<Node score="-0.05103184944342154">
											<SimplePredicate field="distance_km" operator="greaterThan" value="2216.351535843545"/>
											<Node score="-0.0707642521710241">
												<SimplePredicate field="distance_km" operator="greaterThan" value="2989.3097188249553"/>
											</Node>
										</Node>
									</Node>
									<Node score="0.038717117364148596">
										<SimplePredicate field="distance_km" operator="greaterThan" value="2142.028792216546"/>
									</Node>
									<Node score="0.06608542720779069">
										<SimplePredicate field="distance_km" operator="greaterThan" value="631.2443451777707"/>
										<Node score="-0.043581448209517426">
											<SimplePredicate field="distance_km" operator="greaterThan" value="644.850015407979"/>
											<Node score="-0.06394856372801444">
												<SimplePredicate field="distance_km" operator="greaterThan" value="1311.4259411700966"/>
												<Node score="-0.045395461013999557">
													<SimplePredicate field="distance_km" operator="greaterThan" value="1513.5619889949828"/>
												</Node>
											</Node>
											<Node score="-0.01600986480632518">
												<SimplePredicate field="tf-idf(lowercase(interest_emoji), books)" operator="greaterThan" value="1.0000000180025095E-35"/>
											</Node>
										</Node>
									</Node>
									<Node score="-0.08272087847087954">
										<SimplePredicate field="distance_km" operator="greaterThan" value="254.61843986190584"/>
										<Node score="-0.027485052290079578">
											<SimplePredicate field="tf-idf(lowercase(interest_emoji), finance)" operator="greaterThan" value="1.0000000180025095E-35"/>
										</Node>
										<Node score="-0.050723318385242605">
											<SimplePredicate field="qualification=ITI" operator="greaterThan" value="1.0000000180025095E-35"/>
										</Node>
									</Node>
									<Node score="-0.07432105927674623">
										<SimplePredicate field="qualification=12th" operator="greaterThan" value="1.0000000180025095E-35"/>
									</Node>
									<Node score="-0.056281746396242865">
										<SimplePredicate field="qualification=Diploma" operator="greaterThan" value="1.0000000180025095E-35"/>
									</Node>
								</Node>
							</TreeModel>
						</Segment>
						<Segment id="6">
							<True/>
							<TreeModel functionName="regression" noTrueChildStrategy="returnLastPrediction">
								<MiningSchema>
									<MiningField name="distance_km"/>
									<MiningField name="R1_qual_met"/>
									<MiningField name="R3_branch_match"/>
									<MiningField name="tf-idf(lowercase(interest_emoji), books)"/>
									<MiningField name="tf-idf(lowercase(interest_emoji), finance)"/>
									<MiningField name="tf-idf(lowercase(interest_emoji), people)"/>
									<MiningField name="tf-idf(lowercase(interest_emoji), tools)"/>
									<MiningField name="qualification=12th"/>
									<MiningField name="branch=Civil"/>
									<MiningField name="branch=Comm"/>
									<MiningField name="branch=Mech"/>
								</MiningSchema>
								<Node score="-0.01129343131624939">
									<True/>
									<Node score="-0.05099439250553144">
										<SimplePredicate field="R3_branch_match" operator="greaterThan" value="1.0000000180025095E-35"/>
										<Node score="0.09923284302736524">
											<SimplePredicate field="R1_qual_met" operator="greaterThan" value="1.0000000180025095E-35"/>
											<Node score="0.13197082143734018">
												<SimplePredicate field="distance_km" operator="greaterThan" value="228.3778833583848"/>
											</Node>
										</Node>
										<Node score="-0.05067231376418635">
											<SimplePredicate field="branch=Mech" operator="greaterThan" value="1.0000000180025095E-35"/>
											<Node score="-0.09162735037002503">
												<SimplePredicate field="tf-idf(lowercase(interest_emoji), finance)" operator="greaterThan" value="1.0000000180025095E-35"/>
											</Node>
											<Node score="-0.041367430776210336">
												<SimplePredicate field="distance_km" operator="greaterThan" value="955.542569209848"/>
											</Node>
											<Node score="0.15150918971602478">
												<SimplePredicate field="tf-idf(lowercase(interest_emoji), books)" operator="greaterThan" value="1.0000000180025095E-35"/>
											</Node>
											<Node score="0.06134175373510653">
												<SimplePredicate field="distance_km" operator="greaterThan" value="735.9211823701138"/>
											</Node>
										</Node>
									</Node>
									<Node score="-0.05204642503930759">
										<SimplePredicate field="R1_qual_met" operator="greaterThan" value="1.0000000180025095E-35"/>
									</Node>
									<Node score="-0.10715236106058466">
										<SimplePredicate field="distance_km" operator="greaterThan" value="2151.453800300904"/>
										<Node score="-0.05101391414400626">
											<SimplePredicate field="distance_km" operator="greaterThan" value="2216.351535843545"/>
											<Node score="-0.027291877783857513">
												<SimplePredicate field="tf-idf(lowercase(interest_emoji), tools)" operator="greaterThan" value="1.0000000180025095E-35"/>
												<Node score="-0.07260878147578337">
													<SimplePredicate field="branch=Comm" operator="greaterThan" value="1.0000000180025095E-35"/>
												</Node>
												<Node score="-0.05540106228646496">
													<SimplePredicate field="qualification=12th" operator="greaterThan" value="1.0000000180025095E-35"/>
												</Node>
												<Node score="0.059891189953251815">
													<SimplePredicate field="distance_km" operator="greaterThan" value="2965.5099048978377"/>
												</Node>
											</Node>
											<Node score="-0.0742643640194825">
												<SimplePredicate field="distance_km" operator="greaterThan" value="2989.3097188249553"/>
											</Node>
											<Node score="-0.0416417170670452">
												<SimplePredicate field="tf-idf(lowercase(interest_emoji), books)" operator="greaterThan" value="1.0000000180025095E-35"/>
												<Node score="0.016439322385254525">
													<SimplePredicate field="distance_km" operator="greaterThan" value="2790.3711383732857"/>
												</Node>
											</Node>
											<Node score="-0.07891791184365302">
												<SimplePredicate field="branch=Civil" operator="greaterThan" value="1.0000000180025095E-35"/>
											</Node>
										</Node>
										<Node score="-0.0018445329670992413">
											<SimplePredicate field="tf-idf(lowercase(interest_emoji), people)" operator="greaterThan" value="1.0000000180025095E-35"/>
										</Node>
										<Node score="-0.029572787790716926">
											<SimplePredicate field="branch=Comm" operator="greaterThan" value="1.0000000180025095E-35"/>
										</Node>
									</Node>
									<Node score="0.03391976554050404">
										<SimplePredicate field="distance_km" operator="greaterThan" value="2142.028792216546"/>
									</Node>
									<Node score="0.05682221478058661">
										<SimplePredicate field="distance_km" operator="greaterThan" value="631.2443451777707"/>
										<Node score="-0.04044962541699567">
											<SimplePredicate field="distance_km" operator="greaterThan" value="644.850015407979"/>
											<Node score="-0.06022385932030079">
												<SimplePredicate field="distance_km" operator="greaterThan" value="1311.4259411700966"/>
												<Node score="-0.04218764911165711">
													<SimplePredicate field="distance_km" operator="greaterThan" value="1513.5619889949828"/>
												</Node>
											</Node>
											<Node score="-0.01457209303766815">
												<SimplePredicate field="tf-idf(lowercase(interest_emoji), books)" operator="greaterThan" value="1.0000000180025095E-35"/>
											</Node>
										</Node>
									</Node>
									<Node score="-0.0699904071445788">
										<SimplePredicate field="distance_km" operator="greaterThan" value="254.61843986190584"/>
										<Node score="-0.025220413896521306">
											<SimplePredicate field="tf-idf(lowercase(interest_emoji), finance)" operator="greaterThan" value="1.0000000180025095E-35"/>
										</Node>
									</Node>
									<Node score="-0.07048616066000539">
										<SimplePredicate field="qualification=12th" operator="greaterThan" value="1.0000000180025095E-35"/>
									</Node>
								</Node>
							</TreeModel>
						</Segment>
						<Segment id="7">
							<True/>
							<TreeModel functionName="regression" noTrueChildStrategy="returnLastPrediction">
								<MiningSchema>
									<MiningField name="distance_km"/>
									<MiningField name="R1_qual_met"/>
									<MiningField name="R3_branch_match"/>
									<MiningField name="tf-idf(lowercase(interest_emoji), finance)"/>
									<MiningField name="tf-idf(lowercase(interest_emoji), tools)"/>
									<MiningField name="qualification=12th"/>
									<MiningField name="qualification=Diploma"/>
									<MiningField name="qualification=ITI"/>
									<MiningField name="branch=CS"/>
								</MiningSchema>
								<Node score="-0.010244702590609764">
									<True/>
									<Node score="-0.04716888741055503">
										<SimplePredicate field="R3_branch_match" operator="greaterThan" value="1.0000000180025095E-35"/>
										<Node score="0.07372704724803786">
											<SimplePredicate field="R1_qual_met" operator="greaterThan" value="1.0000000180025095E-35"/>
											<Node score="0.11546797555830308">
												<SimplePredicate field="distance_km" operator="greaterThan" value="158.62259913317186"/>
											</Node>
										</Node>
										<Node score="-0.08821388675431234">
											<SimplePredicate field="qualification=ITI" operator="greaterThan" value="1.0000000180025095E-35"/>
											<Node score="0.08957107800908211">
												<SimplePredicate field="distance_km" operator="greaterThan" value="3180.320155474582"/>
											</Node>
											<Node score="-0.03566170330103455">
												<SimplePredicate field="distance_km" operator="greaterThan" value="534.0924038854179"/>
												<Node score="-0.07990780985345391">
													<SimplePredicate field="distance_km" operator="greaterThan" value="2182.6535527163164"/>
													<Node score="-0.00694108838073984">
														<SimplePredicate field="tf-idf(lowercase(interest_emoji), tools)" operator="greaterThan" value="1.0000000180025095E-35"/>
													</Node>
												</Node>
												<Node score="0.13583804088540527">
													<SimplePredicate field="distance_km" operator="greaterThan" value="1953.5605131856776"/>
													<Node score="0.016807624454835184">
														<SimplePredicate field="distance_km" operator="greaterThan" value="2000.4274667670707"/>
													</Node>
												</Node>
											</Node>
										</Node>
										<Node score="-0.10536990300802451">
											<SimplePredicate field="distance_km" operator="greaterThan" value="3129.8683524562935"/>
										</Node>
									</Node>
									<Node score="-0.047647216964341696">
										<SimplePredicate field="R1_qual_met" operator="greaterThan" value="1.0000000180025095E-35"/>
										<Node score="-0.06202045247924183">
											<SimplePredicate field="qualification=ITI" operator="greaterThan" value="1.0000000180025095E-35"/>
											<Node score="-0.07458702655723513">
												<SimplePredicate field="branch=CS" operator="greaterThan" value="1.0000000180025095E-35"/>
												<Node score="0.05452542710690468">
													<SimplePredicate field="distance_km" operator="greaterThan" value="1320.4040373112148"/>
													<Node score="-0.08220811412353332">
														<SimplePredicate field="distance_km" operator="greaterThan" value="1522.6060655642016"/>
														<Node score="0.03598768807823565">
															<SimplePredicate field="distance_km" operator="greaterThan" value="2000.4274667670707"/>
															<Node score="-0.04357694254267562">
																<SimplePredicate field="distance_km" operator="greaterThan" value="2565.992430338865"/>
															</Node>
														</Node>
													</Node>
												</Node>
											</Node>
										</Node>
									</Node>
									<Node score="-0.0738209444658041">
										<SimplePredicate field="distance_km" operator="greaterThan" value="2989.3097188249553"/>
										<Node score="-0.0617450289572838">
											<SimplePredicate field="qualification=Diploma" operator="greaterThan" value="1.0000000180025095E-35"/>
											<Node score="-0.0916441004544932">
												<SimplePredicate field="distance_km" operator="greaterThan" value="3294.3996005728236"/>
											</Node>
											<Node score="0.09791316889699542">
												<SimplePredicate field="distance_km" operator="greaterThan" value="3129.8683524562935"/>
											</Node>
										</Node>
									</Node>
									<Node score="0.08323140252956607">
										<SimplePredicate field="distance_km" operator="greaterThan" value="2965.5099048978377"/>
									</Node>
									<Node score="-0.04835183524640105">
										<SimplePredicate field="distance_km" operator="greaterThan" value="2030.773650274293"/>
									</Node>
									<Node score="0.049224403654329715">
										<SimplePredicate field="distance_km" operator="greaterThan" value="631.2443451777707"/>
										<Node score="-0.022161062086069744">
											<SimplePredicate field="distance_km" operator="greaterThan" value="644.850015407979"/>
											<Node score="-0.03953684952575243">
												<SimplePredicate field="distance_km" operator="greaterThan" value="768.4443961267049"/>
											</Node>
										</Node>
									</Node>
									<Node score="-0.06629580498667663">
										<SimplePredicate field="distance_km" operator="greaterThan" value="254.61843986190584"/>
										<Node score="-0.023109926198419364">
											<SimplePredicate field="tf-idf(lowercase(interest_emoji), finance)" operator="greaterThan" value="1.0000000180025095E-35"/>
										</Node>
									</Node>
									<Node score="-0.06676575263073481">
										<SimplePredicate field="qualification=12th" operator="greaterThan" value="1.0000000180025095E-35"/>
									</Node>
								</Node>
							</TreeModel>
						</Segment>
						<Segment id="8">
							<True/>
							<TreeModel functionName="regression" noTrueChildStrategy="returnLastPrediction">
								<MiningSchema>
									<MiningField name="distance_km"/>
									<MiningField name="R1_qual_met"/>
									<MiningField name="R3_branch_match"/>
									<MiningField name="tf-idf(lowercase(interest_emoji), computer)"/>
									<MiningField name="tf-idf(lowercase(interest_emoji), people)"/>
									<MiningField name="tf-idf(lowercase(interest_emoji), tools)"/>
									<MiningField name="qualification=12th"/>
									<MiningField name="qualification=MBA"/>
									<MiningField name="branch=Arts"/>
									<MiningField name="branch=Civil"/>
									<MiningField name="branch=Comm"/>
									<MiningField name="branch=Mech"/>
								</MiningSchema>
								<Node score="-0.04126900226260198">
									<True/>
									<Node score="-0.04202595380421612">
										<SimplePredicate field="R3_branch_match" operator="greaterThan" value="1.0000000180025095E-35"/>
										<Node score="0.10196122243172479">
											<SimplePredicate field="R1_qual_met" operator="greaterThan" value="1.0000000180025095E-35"/>
										</Node>
									</Node>
									<Node score="-0.06889818414060976">
										<SimplePredicate field="distance_km" operator="greaterThan" value="2595.1934362321817"/>
										<Node score="-0.0770916763963951">
											<SimplePredicate field="distance_km" operator="greaterThan" value="2663.5034437315626"/>
											<Node score="-0.0985053520330184">
												<SimplePredicate field="distance_km" operator="greaterThan" value="2700.4877796676496"/>
												<Node score="-0.037844157514893784">
													<SimplePredicate field="branch=Arts" operator="greaterThan" value="1.0000000180025095E-35"/>
													<Node score="-0.04818118454017376">
														<SimplePredicate field="tf-idf(lowercase(interest_emoji), tools)" operator="greaterThan" value="1.0000000180025095E-35"/>
														<Node score="0.09951384007041249">
															<SimplePredicate field="distance_km" operator="greaterThan" value="2965.5099048978377"/>
														</Node>
													</Node>
												</Node>
												<Node score="-0.05359432916829106">
													<SimplePredicate field="distance_km" operator="greaterThan" value="2716.2295010989815"/>
													<Node score="-0.07355107843964846">
														<SimplePredicate field="tf-idf(lowercase(interest_emoji), people)" operator="greaterThan" value="1.0000000180025095E-35"/>
													</Node>
													<Node score="-0.026729484174928448">
														<SimplePredicate field="branch=Comm" operator="greaterThan" value="1.0000000180025095E-35"/>
													</Node>
												</Node>
											</Node>
											<Node score="0.11557963028090988">
												<SimplePredicate field="qualification=12th" operator="greaterThan" value="1.0000000180025095E-35"/>
											</Node>
											<Node score="0.05883976225182108">
												<SimplePredicate field="tf-idf(lowercase(interest_emoji), computer)" operator="greaterThan" value="1.0000000180025095E-35"/>
											</Node>
											<Node score="0.049399082449576186">
												<SimplePredicate field="branch=Civil" operator="greaterThan" value="1.0000000180025095E-35"/>
											</Node>
										</Node>
									</Node>
									<Node score="-0.054455647728744005">
										<SimplePredicate field="qualification=MBA" operator="greaterThan" value="1.0000000180025095E-35"/>
										<Node score="-0.025284282754705945">
											<SimplePredicate field="distance_km" operator="greaterThan" value="1707.255426855648"/>
											<Node score="-0.04574425237842919">
												<SimplePredicate field="distance_km" operator="greaterThan" value="1743.3913308401889"/>
												<Node score="-0.04954794322745984">
													<SimplePredicate field="tf-idf(lowercase(interest_emoji), people)" operator="greaterThan" value="1.0000000180025095E-35"/>
													<Node score="-0.10703327972165888">
														<SimplePredicate field="distance_km" operator="greaterThan" value="2236.727797839294"/>
													</Node>
												</Node>
												<Node score="-0.06568218993676767">
													<SimplePredicate field="branch=Mech" operator="greaterThan" value="1.0000000180025095E-35"/>
												</Node>
												<Node score="-0.016669249300136586">
													<SimplePredicate field="distance_km" operator="greaterThan" value="2100.064109367502"/>
												</Node>
											</Node>
											<Node score="0.08028312995771136">
												<SimplePredicate field="distance_km" operator="greaterThan" value="1725.698682356552"/>
											</Node>
										</Node>
										<Node score="-0.11883842150203588">
											<SimplePredicate field="distance_km" operator="greaterThan" value="1687.4071034042238"/>
										</Node>
									</Node>
									<Node score="-0.03439238943881559">
										<SimplePredicate field="tf-idf(lowercase(interest_emoji), computer)" operator="greaterThan" value="1.0000000180025095E-35"/>
									</Node>
									<Node score="0.04499928287975578">
										<SimplePredicate field="distance_km" operator="greaterThan" value="2521.892492188241"/>
										<Node score="0.06507303374197775">
											<SimplePredicate field="branch=Arts" operator="greaterThan" value="1.0000000180025095E-35"/>
										</Node>
										<Node score="-0.03903834612009698">
											<SimplePredicate field="distance_km" operator="greaterThan" value="2538.431162281841"/>
											<Node score="-0.11717512230236755">
												<SimplePredicate field="branch=Mech" operator="greaterThan" value="1.0000000180025095E-35"/>
											</Node>
										</Node>
									</Node>
									<Node score="-0.04913486601131309">
										<SimplePredicate field="distance_km" operator="greaterThan" value="2048.7975333990394"/>
									</Node>
									<Node score="0.028169549161443305">
										<SimplePredicate field="distance_km" operator="greaterThan" value="2039.7806925242908"/>
									</Node>
								</Node>
							</TreeModel>
						</Segment>
						<Segment id="9">
							<True/>
							<TreeModel functionName="regression" noTrueChildStrategy="returnLastPrediction">
								<MiningSchema>
									<MiningField name="distance_km"/>
									<MiningField name="R1_qual_met"/>
									<MiningField name="tf-idf(lowercase(interest_emoji), books)"/>
									<MiningField name="tf-idf(lowercase(interest_emoji), computer)"/>
									<MiningField name="tf-idf(lowercase(interest_emoji), design)"/>
									<MiningField name="tf-idf(lowercase(interest_emoji), finance)"/>
									<MiningField name="qualification=B.Tech"/>
									<MiningField name="qualification=ITI"/>
									<MiningField name="qualification=MBA"/>
									<MiningField name="branch=Comm"/>
									<MiningField name="branch=Elec"/>
								</MiningSchema>
								<Node score="-0.039497262760583386">
									<True/>
									<Node score="0.02133781831218351">
										<SimplePredicate field="R1_qual_met" operator="greaterThan" value="1.0000000180025095E-35"/>
										<Node score="-4.61456932498458E-4">
											<SimplePredicate field="qualification=ITI" operator="greaterThan" value="1.0000000180025095E-35"/>
											<Node score="0.045314376520890154">
												<SimplePredicate field="tf-idf(lowercase(interest_emoji), computer)" operator="greaterThan" value="1.0000000180025095E-35"/>
												<Node score="-0.09739203079729997">
													<SimplePredicate field="branch=Comm" operator="greaterThan" value="1.0000000180025095E-35"/>
													<Node score="0.011987259022200132">
														<SimplePredicate field="distance_km" operator="greaterThan" value="1733.463501357279"/>
													</Node>
												</Node>
											</Node>
											<Node score="0.021872340881182607">
												<SimplePredicate field="tf-idf(lowercase(interest_emoji), design)" operator="greaterThan" value="1.0000000180025095E-35"/>
											</Node>
										</Node>
										<Node score="0.01150264754791507">
											<SimplePredicate field="qualification=MBA" operator="greaterThan" value="1.0000000180025095E-35"/>
											<Node score="0.033580563603008734">
												<SimplePredicate field="distance_km" operator="greaterThan" value="2943.338819267963"/>
												<Node score="0.10312483901328647">
													<SimplePredicate field="tf-idf(lowercase(interest_emoji), finance)" operator="greaterThan" value="1.0000000180025095E-35"/>
												</Node>
											</Node>
											<Node score="-0.037074578867161236">
												<SimplePredicate field="distance_km" operator="greaterThan" value="2716.2295010989815"/>
												<Node score="-0.0868243295472948">
													<SimplePredicate field="branch=Elec" operator="greaterThan" value="1.0000000180025095E-35"/>
												</Node>
												<Node score="0.10140902338002611">
													<SimplePredicate field="distance_km" operator="greaterThan" value="2812.0672592012597"/>
													<Node score="0.0030969124387187266">
														<SimplePredicate field="distance_km" operator="greaterThan" value="2848.965905993334"/>
													</Node>
												</Node>
											</Node>
											<Node score="0.040618652057123">
												<SimplePredicate field="distance_km" operator="greaterThan" value="2521.892492188241"/>
											</Node>
											<Node score="-0.0281877751397811">
												<SimplePredicate field="distance_km" operator="greaterThan" value="2395.9202083777695"/>
												<Node score="0.060892521064535">
													<SimplePredicate field="tf-idf(lowercase(interest_emoji), books)" operator="greaterThan" value="1.0000000180025095E-35"/>
												</Node>
											</Node>
											<Node score="0.15646690775218006">
												<SimplePredicate field="distance_km" operator="greaterThan" value="2385.423570259661"/>
											</Node>
										</Node>
										<Node score="-0.027521019478622812">
											<SimplePredicate field="distance_km" operator="greaterThan" value="3180.320155474582"/>
											<Node score="0.059210979296412794">
												<SimplePredicate field="tf-idf(lowercase(interest_emoji), finance)" operator="greaterThan" value="1.0000000180025095E-35"/>
											</Node>
										</Node>
										<Node score="0.013005664375268825">
											<SimplePredicate field="qualification=B.Tech" operator="greaterThan" value="1.0000000180025095E-35"/>
											<Node score="-0.007839654650827714">
												<SimplePredicate field="distance_km" operator="greaterThan" value="2611.928899380319"/>
											</Node>
											<Node score="0.036800196455876996">
												<SimplePredicate field="branch=Elec" operator="greaterThan" value="1.0000000180025095E-35"/>
											</Node>
										</Node>
									</Node>
									<Node score="-0.03996676844279501">
										<SimplePredicate field="qualification=ITI" operator="greaterThan" value="1.0000000180025095E-35"/>
										<Node score="-0.04702300913567027">
											<SimplePredicate field="branch=Comm" operator="greaterThan" value="1.0000000180025095E-35"/>
										</Node>
										<Node score="-0.009720981352975841">
											<SimplePredicate field="tf-idf(lowercase(interest_emoji), design)" operator="greaterThan" value="1.0000000180025095E-35"/>
										</Node>
										<Node score="-0.03738661381288559">
											<SimplePredicate field="distance_km" operator="greaterThan" value="1374.1452316630578"/>
										</Node>
										<Node score="0.07785036072475882">
											<SimplePredicate field="distance_km" operator="greaterThan" value="735.9211823701138"/>
											<Node score="-0.042605096276032234">
												<SimplePredicate field="distance_km" operator="greaterThan" value="768.4443961267049"/>
												<Node score="-0.006068418162106164">
													<SimplePredicate field="distance_km" operator="greaterThan" value="903.7434455573956"/>
												</Node>
											</Node>
										</Node>
									</Node>
									<Node score="-0.07953020736146338">
										<SimplePredicate field="distance_km" operator="greaterThan" value="3232.4321862692996"/>
									</Node>
								</Node>
							</TreeModel>
						</Segment>
						<Segment id="10">
							<True/>
							<TreeModel functionName="regression" noTrueChildStrategy="returnLastPrediction">
								<MiningSchema>
									<MiningField name="distance_km"/>
									<MiningField name="R1_qual_met"/>
									<MiningField name="R3_branch_match"/>
									<MiningField name="tf-idf(lowercase(interest_emoji), computer)"/>
									<MiningField name="tf-idf(lowercase(interest_emoji), design)"/>
									<MiningField name="tf-idf(lowercase(interest_emoji), finance)"/>
									<MiningField name="qualification=12th"/>
									<MiningField name="qualification=Diploma"/>
									<MiningField name="branch=CS"/>
									<MiningField name="branch=Mech"/>
								</MiningSchema>
								<Node score="-0.0333741951970769">
									<True/>
									<Node score="-0.0406811785517635">
										<SimplePredicate field="R3_branch_match" operator="greaterThan" value="1.0000000180025095E-35"/>
										<Node score="0.06314220637496247">
											<SimplePredicate field="R1_qual_met" operator="greaterThan" value="1.0000000180025095E-35"/>
											<Node score="0.08961773718912065">
												<SimplePredicate field="distance_km" operator="greaterThan" value="228.3778833583848"/>
											</Node>
										</Node>
										<Node score="-0.03600136881497095">
											<SimplePredicate field="branch=Mech" operator="greaterThan" value="1.0000000180025095E-35"/>
											<Node score="-0.08351185047060804">
												<SimplePredicate field="tf-idf(lowercase(interest_emoji), finance)" operator="greaterThan" value="1.0000000180025095E-35"/>
											</Node>
											<Node score="-0.08988629106845572">
												<SimplePredicate field="distance_km" operator="greaterThan" value="955.542569209848"/>
												<Node score="-0.026782982655469884">
													<SimplePredicate field="distance_km" operator="greaterThan" value="1488.643412255632"/>
													<Node score="0.08593056647175026">
														<SimplePredicate field="tf-idf(lowercase(interest_emoji), design)" operator="greaterThan" value="1.0000000180025095E-35"/>
														<Node score="-0.07375487806009198">
															<SimplePredicate field="qualification=Diploma" operator="greaterThan" value="1.0000000180025095E-35"/>
														</Node>
													</Node>
												</Node>
												<Node score="-0.00878451394563571">
													<SimplePredicate field="tf-idf(lowercase(interest_emoji), computer)" operator="greaterThan" value="1.0000000180025095E-35"/>
												</Node>
											</Node>
											<Node score="0.12009796969406097">
												<SimplePredicate field="qualification=Diploma" operator="greaterThan" value="1.0000000180025095E-35"/>
											</Node>
											<Node score="0.11525315208409528">
												<SimplePredicate field="distance_km" operator="greaterThan" value="668.6163148175493"/>
												<Node score="-0.016865482382108842">
													<SimplePredicate field="qualification=12th" operator="greaterThan" value="1.0000000180025095E-35"/>
												</Node>
											</Node>
										</Node>
										<Node score="0.020558212006535993">
											<SimplePredicate field="distance_km" operator="greaterThan" value="1885.357458044522"/>
											<Node score="-0.021566776403776397">
												<SimplePredicate field="distance_km" operator="greaterThan" value="1934.8325633688198"/>
												<Node score="-0.10269716407116292">
													<SimplePredicate field="distance_km" operator="greaterThan" value="2194.7647450078034"/>
													<Node score="-0.0456196917207936">
														<SimplePredicate field="distance_km" operator="greaterThan" value="2257.300585801862"/>
														<Node score="0.001849748107938385">
															<SimplePredicate field="tf-idf(lowercase(interest_emoji), design)" operator="greaterThan" value="1.0000000180025095E-35"/>
														</Node>
													</Node>
												</Node>
												<Node score="0.09286774966012783">
													<SimplePredicate field="distance_km" operator="greaterThan" value="2120.6959233710645"/>
													<Node score="-0.0782088467961006">
														<SimplePredicate field="branch=CS" operator="greaterThan" value="1.0000000180025095E-35"/>
													</Node>
												</Node>
												<Node score="-0.11578533743640484">
													<SimplePredicate field="qualification=Diploma" operator="greaterThan" value="1.0000000180025095E-35"/>
												</Node>
											</Node>
											<Node score="0.14276238258856563">
												<SimplePredicate field="qualification=12th" operator="greaterThan" value="1.0000000180025095E-35"/>
											</Node>
										</Node>
										<Node score="-0.07558287545582379">
											<SimplePredicate field="distance_km" operator="greaterThan" value="1715.8093052485617"/>
										</Node>
									</Node>
									<Node score="-0.04207649879484243">
										<SimplePredicate field="R1_qual_met" operator="greaterThan" value="1.0000000180025095E-35"/>
										<Node score="-0.049456916673528084">
											<SimplePredicate field="branch=Mech" operator="greaterThan" value="1.0000000180025095E-35"/>
										</Node>
									</Node>
									<Node score="-0.09227274749973242">
										<SimplePredicate field="distance_km" operator="greaterThan" value="2989.3097188249553"/>
										<Node score="-0.05934310543516722">
											<SimplePredicate field="distance_km" operator="greaterThan" value="3049.6694712872654"/>
											<Node score="0.098591807636565">
												<SimplePredicate field="qualification=Diploma" operator="greaterThan" value="1.0000000180025095E-35"/>
												<Node score="-0.06892247144206791">
													<SimplePredicate field="distance_km" operator="greaterThan" value="3232.4321862692996"/>
												</Node>
											</Node>
										</Node>
									</Node>
									<Node score="0.08111166432899401">
										<SimplePredicate field="distance_km" operator="greaterThan" value="2965.5099048978377"/>
									</Node>
								</Node>
							</TreeModel>
						</Segment>
						<Segment id="11">
							<True/>
							<TreeModel functionName="regression" noTrueChildStrategy="returnLastPrediction">
								<MiningSchema>
									<MiningField name="distance_km"/>
									<MiningField name="R1_qual_met"/>
									<MiningField name="R3_branch_match"/>
									<MiningField name="tf-idf(lowercase(interest_emoji), books)"/>
									<MiningField name="tf-idf(lowercase(interest_emoji), tools)"/>
									<MiningField name="qualification=12th"/>
									<MiningField name="qualification=ITI"/>
									<MiningField name="branch=Arts"/>
									<MiningField name="branch=CS"/>
									<MiningField name="branch=Comm"/>
									<MiningField name="branch=Mech"/>
								</MiningSchema>
								<Node score="-0.041556806855224865">
									<True/>
									<Node score="-0.033687130139286404">
										<SimplePredicate field="R3_branch_match" operator="greaterThan" value="1.0000000180025095E-35"/>
										<Node score="0.08011063310802045">
											<SimplePredicate field="R1_qual_met" operator="greaterThan" value="1.0000000180025095E-35"/>
										</Node>
									</Node>
									<Node score="-0.03933356458451068">
										<SimplePredicate field="R1_qual_met" operator="greaterThan" value="1.0000000180025095E-35"/>
										<Node score="-0.053609547695385375">
											<SimplePredicate field="qualification=ITI" operator="greaterThan" value="1.0000000180025095E-35"/>
											<Node score="-0.06147491843776313">
												<SimplePredicate field="branch=CS" operator="greaterThan" value="1.0000000180025095E-35"/>
												<Node score="0.10533901030100115">
													<SimplePredicate field="distance_km" operator="greaterThan" value="2247.4223060000472"/>
													<Node score="-0.028836748495490762">
														<SimplePredicate field="distance_km" operator="greaterThan" value="2629.2383676358345"/>
													</Node>
												</Node>
												<Node score="0.04286267450442635">
													<SimplePredicate field="tf-idf(lowercase(interest_emoji), books)" operator="greaterThan" value="1.0000000180025095E-35"/>
												</Node>
											</Node>
										</Node>
									</Node>
									<Node score="-0.021905478250203624">
										<SimplePredicate field="qualification=ITI" operator="greaterThan" value="1.0000000180025095E-35"/>
										<Node score="-0.057621723588992126">
											<SimplePredicate field="distance_km" operator="greaterThan" value="2434.1262033684966"/>
											<Node score="0.0047805068689341194">
												<SimplePredicate field="tf-idf(lowercase(interest_emoji), tools)" operator="greaterThan" value="1.0000000180025095E-35"/>
												<Node score="0.13870955604036972">
													<SimplePredicate field="distance_km" operator="greaterThan" value="2965.5099048978377"/>
												</Node>
												<Node score="-0.11560534865601874">
													<SimplePredicate field="distance_km" operator="greaterThan" value="2735.863152120897"/>
												</Node>
											</Node>
										</Node>
										<Node score="-0.04717516057970763">
											<SimplePredicate field="branch=Comm" operator="greaterThan" value="1.0000000180025095E-35"/>
											<Node score="0.028771474589055906">
												<SimplePredicate field="distance_km" operator="greaterThan" value="2171.219984472377"/>
											</Node>
										</Node>
										<Node score="-0.025279585968261378">
											<SimplePredicate field="distance_km" operator="greaterThan" value="1227.9287368888752"/>
										</Node>
										<Node score="0.01737375404265236">
											<SimplePredicate field="distance_km" operator="greaterThan" value="903.7434455573956"/>
										</Node>
									</Node>
									<Node score="-0.06787414534341232">
										<SimplePredicate field="distance_km" operator="greaterThan" value="596.1110152274006"/>
										<Node score="-0.05666578449855203">
											<SimplePredicate field="distance_km" operator="greaterThan" value="757.4151247878916"/>
											<Node score="1.9738989736506004E-4">
												<SimplePredicate field="distance_km" operator="greaterThan" value="1058.2256241471243"/>
												<Node score="-0.034492667787694095">
													<SimplePredicate field="distance_km" operator="greaterThan" value="1163.328462523766"/>
												</Node>
												<Node score="0.0719768442592758">
													<SimplePredicate field="branch=Mech" operator="greaterThan" value="1.0000000180025095E-35"/>
												</Node>
											</Node>
											<Node score="0.028634458901472044">
												<SimplePredicate field="branch=Arts" operator="greaterThan" value="1.0000000180025095E-35"/>
												<Node score="-0.11587986666860715">
													<SimplePredicate field="tf-idf(lowercase(interest_emoji), tools)" operator="greaterThan" value="1.0000000180025095E-35"/>
												</Node>
											</Node>
										</Node>
										<Node score="-0.005232155868105952">
											<SimplePredicate field="branch=CS" operator="greaterThan" value="1.0000000180025095E-35"/>
											<Node score="-0.09515969352448034">
												<SimplePredicate field="qualification=12th" operator="greaterThan" value="1.0000000180025095E-35"/>
											</Node>
										</Node>
										<Node score="0.039749310097486654">
											<SimplePredicate field="qualification=12th" operator="greaterThan" value="1.0000000180025095E-35"/>
											<Node score="0.11692820395746686">
												<SimplePredicate field="branch=Arts" operator="greaterThan" value="1.0000000180025095E-35"/>
											</Node>
										</Node>
										<Node score="0.011547754108444419">
											<SimplePredicate field="distance_km" operator="greaterThan" value="701.9212323464246"/>
										</Node>
									</Node>
									<Node score="-0.09140693687178744">
										<SimplePredicate field="distance_km" operator="greaterThan" value="534.0924038854179"/>
									</Node>
								</Node>
							</TreeModel>
						</Segment>
						<Segment id="12">
							<True/>
							<TreeModel functionName="regression" noTrueChildStrategy="returnLastPrediction">
								<MiningSchema>
									<MiningField name="distance_km"/>
									<MiningField name="R3_branch_match"/>
									<MiningField name="tf-idf(lowercase(interest_emoji), design)"/>
									<MiningField name="tf-idf(lowercase(interest_emoji), finance)"/>
									<MiningField name="tf-idf(lowercase(interest_emoji), people)"/>
									<MiningField name="qualification=12th"/>
									<MiningField name="qualification=Diploma"/>
									<MiningField name="qualification=ITI"/>
									<MiningField name="qualification=MBA"/>
									<MiningField name="branch=CS"/>
									<MiningField name="branch=Civil"/>
								</MiningSchema>
								<Node score="-0.031616561310802795">
									<True/>
									<Node score="0.06728241077873218">
										<SimplePredicate field="R3_branch_match" operator="greaterThan" value="1.0000000180025095E-35"/>
										<Node score="-0.0018584295134983137">
											<SimplePredicate field="qualification=12th" operator="greaterThan" value="1.0000000180025095E-35"/>
											<Node score="-0.06695390507992742">
												<SimplePredicate field="distance_km" operator="greaterThan" value="2915.087435750877"/>
											</Node>
											<Node score="0.15120703905372523">
												<SimplePredicate field="distance_km" operator="greaterThan" value="2790.3711383732857"/>
											</Node>
											<Node score="-0.04299585923276992">
												<SimplePredicate field="tf-idf(lowercase(interest_emoji), design)" operator="greaterThan" value="1.0000000180025095E-35"/>
												<Node score="0.16826194228889882">
													<SimplePredicate field="distance_km" operator="greaterThan" value="2493.664052582734"/>
												</Node>
											</Node>
											<Node score="-0.10798608712758584">
												<SimplePredicate field="distance_km" operator="greaterThan" value="884.5679415312339"/>
												<Node score="0.001754057355891733">
													<SimplePredicate field="distance_km" operator="greaterThan" value="945.0714237994795"/>
													<Node score="-0.04873776654750847">
														<SimplePredicate field="distance_km" operator="greaterThan" value="2579.2960562199255"/>
													</Node>
												</Node>
											</Node>
											<Node score="0.11826931277156774">
												<SimplePredicate field="branch=Civil" operator="greaterThan" value="1.0000000180025095E-35"/>
											</Node>
											<Node score="0.0828299959132077">
												<SimplePredicate field="tf-idf(lowercase(interest_emoji), finance)" operator="greaterThan" value="1.0000000180025095E-35"/>
											</Node>
										</Node>
										<Node score="-3.7898195411503814E-5">
											<SimplePredicate field="qualification=ITI" operator="greaterThan" value="1.0000000180025095E-35"/>
											<Node score="0.01765446747093179">
												<SimplePredicate field="distance_km" operator="greaterThan" value="488.5014156881791"/>
												<Node score="0.05555627078468851">
													<SimplePredicate field="tf-idf(lowercase(interest_emoji), design)" operator="greaterThan" value="1.0000000180025095E-35"/>
												</Node>
												<Node score="0.03241353136823795">
													<SimplePredicate field="branch=Civil" operator="greaterThan" value="1.0000000180025095E-35"/>
													<Node score="0.07084947724042703">
														<SimplePredicate field="distance_km" operator="greaterThan" value="1114.0571116029785"/>
													</Node>
													<Node score="-0.0815565427979453">
														<SimplePredicate field="distance_km" operator="greaterThan" value="912.3849666838461"/>
													</Node>
												</Node>
											</Node>
											<Node score="-0.09499017807471974">
												<SimplePredicate field="distance_km" operator="greaterThan" value="386.290251769221"/>
											</Node>
										</Node>
										<Node score="0.06355790853118536">
											<SimplePredicate field="qualification=Diploma" operator="greaterThan" value="1.0000000180025095E-35"/>
											<Node score="-0.07448504934030906">
												<SimplePredicate field="distance_km" operator="greaterThan" value="747.482057811477"/>
												<Node score="0.04142616895330442">
													<SimplePredicate field="distance_km" operator="greaterThan" value="801.7616882711417"/>
												</Node>
											</Node>
										</Node>
									</Node>
									<Node score="-0.04170133278248749">
										<SimplePredicate field="distance_km" operator="greaterThan" value="2595.1934362321817"/>
									</Node>
									<Node score="-0.04810544799643169">
										<SimplePredicate field="qualification=MBA" operator="greaterThan" value="1.0000000180025095E-35"/>
										<Node score="0.08478406503571297">
											<SimplePredicate field="distance_km" operator="greaterThan" value="1416.7806072179185"/>
											<Node score="-0.10516502092573361">
												<SimplePredicate field="distance_km" operator="greaterThan" value="1436.6536601048595"/>
												<Node score="-0.03329369194158605">
													<SimplePredicate field="distance_km" operator="greaterThan" value="1496.7251313562876"/>
													<Node score="-0.057858604933528984">
														<SimplePredicate field="tf-idf(lowercase(interest_emoji), people)" operator="greaterThan" value="1.0000000180025095E-35"/>
													</Node>
													<Node score="-9.764049851760898E-4">
														<SimplePredicate field="branch=CS" operator="greaterThan" value="1.0000000180025095E-35"/>
													</Node>
												</Node>
												<Node score="0.012282556575719764">
													<SimplePredicate field="branch=CS" operator="greaterThan" value="1.0000000180025095E-35"/>
												</Node>
											</Node>
										</Node>
										<Node score="-0.11630522515717495">
											<SimplePredicate field="distance_km" operator="greaterThan" value="1392.225869627847"/>
										</Node>
									</Node>
								</Node>
							</TreeModel>
						</Segment>
						<Segment id="13">
							<True/>
							<TreeModel functionName="regression" noTrueChildStrategy="returnLastPrediction">
								<MiningSchema>
									<MiningField name="distance_km"/>
									<MiningField name="R3_branch_match"/>
									<MiningField name="tf-idf(lowercase(interest_emoji), books)"/>
									<MiningField name="tf-idf(lowercase(interest_emoji), computer)"/>
									<MiningField name="tf-idf(lowercase(interest_emoji), design)"/>
									<MiningField name="qualification=12th"/>
									<MiningField name="qualification=B.Tech"/>
									<MiningField name="qualification=Diploma"/>
									<MiningField name="qualification=ITI"/>
									<MiningField name="branch=Civil"/>
									<MiningField name="branch=Elec"/>
									<MiningField name="branch=Mech"/>
								</MiningSchema>
								<Node score="-0.031566594344434394">
									<True/>
									<Node score="0.058837764097153925">
										<SimplePredicate field="R3_branch_match" operator="greaterThan" value="1.0000000180025095E-35"/>
										<Node score="0.01048015954340499">
											<SimplePredicate field="qualification=12th" operator="greaterThan" value="1.0000000180025095E-35"/>
											<Node score="-0.06269758669237993">
												<SimplePredicate field="distance_km" operator="greaterThan" value="2915.087435750877"/>
											</Node>
											<Node score="0.12750279872283976">
												<SimplePredicate field="distance_km" operator="greaterThan" value="2790.3711383732857"/>
											</Node>
											<Node score="-0.039636917571458784">
												<SimplePredicate field="tf-idf(lowercase(interest_emoji), design)" operator="greaterThan" value="1.0000000180025095E-35"/>
												<Node score="0.13971090900991237">
													<SimplePredicate field="distance_km" operator="greaterThan" value="2493.664052582734"/>
												</Node>
											</Node>
											<Node score="-0.10395060674112329">
												<SimplePredicate field="distance_km" operator="greaterThan" value="884.5679415312339"/>
												<Node score="-0.0022045891939898913">
													<SimplePredicate field="distance_km" operator="greaterThan" value="945.0714237994795"/>
												</Node>
											</Node>
											<Node score="0.101376210363776">
												<SimplePredicate field="branch=Civil" operator="greaterThan" value="1.0000000180025095E-35"/>
											</Node>
										</Node>
										<Node score="-0.024790083246240213">
											<SimplePredicate field="qualification=ITI" operator="greaterThan" value="1.0000000180025095E-35"/>
											<Node score="0.1070321295095384">
												<SimplePredicate field="distance_km" operator="greaterThan" value="534.0924038854179"/>
												<Node score="-0.02952959221348683">
													<SimplePredicate field="distance_km" operator="greaterThan" value="583.7894147936696"/>
													<Node score="0.030684647803595744">
														<SimplePredicate field="distance_km" operator="greaterThan" value="822.9608240199349"/>
														<Node score="-0.05148715263194717">
															<SimplePredicate field="distance_km" operator="greaterThan" value="1011.1944418152428"/>
															<Node score="0.0238957763649993">
																<SimplePredicate field="distance_km" operator="greaterThan" value="1047.9015201737004"/>
															</Node>
														</Node>
														<Node score="0.13672495625901923">
															<SimplePredicate field="distance_km" operator="greaterThan" value="945.0714237994795"/>
														</Node>
													</Node>
													<Node score="0.05925074806993337">
														<SimplePredicate field="tf-idf(lowercase(interest_emoji), books)" operator="greaterThan" value="1.0000000180025095E-35"/>
													</Node>
												</Node>
											</Node>
										</Node>
										<Node score="0.03437459514202921">
											<SimplePredicate field="qualification=Diploma" operator="greaterThan" value="1.0000000180025095E-35"/>
											<Node score="0.058536343118914626">
												<SimplePredicate field="tf-idf(lowercase(interest_emoji), books)" operator="greaterThan" value="1.0000000180025095E-35"/>
											</Node>
										</Node>
										<Node score="0.06092892731079752">
											<SimplePredicate field="branch=Mech" operator="greaterThan" value="1.0000000180025095E-35"/>
											<Node score="0.18438068548071992">
												<SimplePredicate field="distance_km" operator="greaterThan" value="1815.5352052758456"/>
												<Node score="0.08286857052518067">
													<SimplePredicate field="distance_km" operator="greaterThan" value="1915.2357188906524"/>
												</Node>
											</Node>
											<Node score="0.005550186639875752">
												<SimplePredicate field="distance_km" operator="greaterThan" value="1660.7494302065052"/>
											</Node>
										</Node>
										<Node score="0.04242774658861542">
											<SimplePredicate field="distance_km" operator="greaterThan" value="2663.5034437315626"/>
											<Node score="-0.054869959202372046">
												<SimplePredicate field="qualification=B.Tech" operator="greaterThan" value="1.0000000180025095E-35"/>
												<Node score="0.03397587030074542">
													<SimplePredicate field="distance_km" operator="greaterThan" value="2848.965905993334"/>
												</Node>
											</Node>
											<Node score="0.12402565277052119">
												<SimplePredicate field="tf-idf(lowercase(interest_emoji), computer)" operator="greaterThan" value="1.0000000180025095E-35"/>
											</Node>
										</Node>
										<Node score="0.06325255868624938">
											<SimplePredicate field="distance_km" operator="greaterThan" value="1615.2062079176326"/>
											<Node score="0.08259594942117693">
												<SimplePredicate field="branch=Elec" operator="greaterThan" value="1.0000000180025095E-35"/>
											</Node>
										</Node>
										<Node score="0.017684224406855572">
											<SimplePredicate field="distance_km" operator="greaterThan" value="1546.2070644117787"/>
										</Node>
									</Node>
								</Node>
							</TreeModel>
						</Segment>
						<Segment id="14">
							<True/>
							<TreeModel functionName="regression" noTrueChildStrategy="returnLastPrediction">
								<MiningSchema>
									<MiningField name="distance_km"/>
									<MiningField name="R1_qual_met"/>
									<MiningField name="R3_branch_match"/>
									<MiningField name="tf-idf(lowercase(interest_emoji), computer)"/>
									<MiningField name="tf-idf(lowercase(interest_emoji), design)"/>
									<MiningField name="qualification=12th"/>
									<MiningField name="qualification=Diploma"/>
									<MiningField name="qualification=ITI"/>
									<MiningField name="branch=CS"/>
									<MiningField name="branch=Mech"/>
								</MiningSchema>
								<Node score="-0.025503899930224012">
									<True/>
									<Node score="-0.034594812613818436">
										<SimplePredicate field="R3_branch_match" operator="greaterThan" value="1.0000000180025095E-35"/>
										<Node score="0.061830249484381296">
											<SimplePredicate field="R1_qual_met" operator="greaterThan" value="1.0000000180025095E-35"/>
										</Node>
									</Node>
									<Node score="-0.03001592876096772">
										<SimplePredicate field="R1_qual_met" operator="greaterThan" value="1.0000000180025095E-35"/>
										<Node score="-0.0460831648458687">
											<SimplePredicate field="qualification=ITI" operator="greaterThan" value="1.0000000180025095E-35"/>
											<Node score="-0.02122507998963605">
												<SimplePredicate field="branch=CS" operator="greaterThan" value="1.0000000180025095E-35"/>
											</Node>
										</Node>
										<Node score="-0.04594713264503179">
											<SimplePredicate field="branch=Mech" operator="greaterThan" value="1.0000000180025095E-35"/>
											<Node score="-0.023719272695575163">
												<SimplePredicate field="tf-idf(lowercase(interest_emoji), computer)" operator="greaterThan" value="1.0000000180025095E-35"/>
												<Node score="-0.019876198498857283">
													<SimplePredicate field="qualification=Diploma" operator="greaterThan" value="1.0000000180025095E-35"/>
													<Node score="0.08383428436427764">
														<SimplePredicate field="distance_km" operator="greaterThan" value="1715.8093052485617"/>
													</Node>
												</Node>
												<Node score="-0.0845502828961105">
													<SimplePredicate field="distance_km" operator="greaterThan" value="1669.2242364174267"/>
													<Node score="0.021342584172528836">
														<SimplePredicate field="distance_km" operator="greaterThan" value="2550.9399430338635"/>
													</Node>
												</Node>
												<Node score="0.10392615003953463">
													<SimplePredicate field="distance_km" operator="greaterThan" value="1513.5619889949828"/>
												</Node>
											</Node>
											<Node score="0.0114795994949979">
												<SimplePredicate field="distance_km" operator="greaterThan" value="2915.087435750877"/>
												<Node score="-0.05571067977107555">
													<SimplePredicate field="distance_km" operator="greaterThan" value="3129.8683524562935"/>
												</Node>
												<Node score="0.12254954653696677">
													<SimplePredicate field="distance_km" operator="greaterThan" value="3049.6694712872654"/>
												</Node>
											</Node>
											<Node score="-0.08891054431261664">
												<SimplePredicate field="distance_km" operator="greaterThan" value="2395.9202083777695"/>
											</Node>
											<Node score="-0.01533550385900874">
												<SimplePredicate field="tf-idf(lowercase(interest_emoji), design)" operator="greaterThan" value="1.0000000180025095E-35"/>
											</Node>
										</Node>
									</Node>
									<Node score="-0.0713723641569944">
										<SimplePredicate field="distance_km" operator="greaterThan" value="2989.3097188249553"/>
										<Node score="0.019948148213142346">
											<SimplePredicate field="distance_km" operator="greaterThan" value="3129.8683524562935"/>
											<Node score="-0.05307930133169907">
												<SimplePredicate field="distance_km" operator="greaterThan" value="3232.4321862692996"/>
											</Node>
										</Node>
									</Node>
									<Node score="0.01702277504418222">
										<SimplePredicate field="distance_km" operator="greaterThan" value="2943.338819267963"/>
										<Node score="0.10734820587638626">
											<SimplePredicate field="qualification=ITI" operator="greaterThan" value="1.0000000180025095E-35"/>
										</Node>
									</Node>
									<Node score="-0.09806057729067866">
										<SimplePredicate field="distance_km" operator="greaterThan" value="2700.4877796676496"/>
										<Node score="-0.008753000543437722">
											<SimplePredicate field="distance_km" operator="greaterThan" value="2735.863152120897"/>
											<Node score="-0.08269233116154523">
												<SimplePredicate field="branch=CS" operator="greaterThan" value="1.0000000180025095E-35"/>
											</Node>
											<Node score="-0.08092107587400883">
												<SimplePredicate field="branch=Mech" operator="greaterThan" value="1.0000000180025095E-35"/>
											</Node>
										</Node>
									</Node>
									<Node score="0.0031021925269497136">
										<SimplePredicate field="distance_km" operator="greaterThan" value="2663.5034437315626"/>
										<Node score="0.11283511670351723">
											<SimplePredicate field="qualification=12th" operator="greaterThan" value="1.0000000180025095E-35"/>
										</Node>
									</Node>
									<Node score="-0.07402969351326497">
										<SimplePredicate field="distance_km" operator="greaterThan" value="2629.2383676358345"/>
									</Node>
									<Node score="-0.015233908922368485">
										<SimplePredicate field="qualification=ITI" operator="greaterThan" value="1.0000000180025095E-35"/>
									</Node>
								</Node>
							</TreeModel>
						</Segment>
						<Segment id="15">
							<True/>
							<TreeModel functionName="regression" noTrueChildStrategy="returnLastPrediction">
								<MiningSchema>
									<MiningField name="distance_km"/>
									<MiningField name="R1_qual_met"/>
									<MiningField name="R3_branch_match"/>
									<MiningField name="tf-idf(lowercase(interest_emoji), books)"/>
									<MiningField name="qualification=12th"/>
									<MiningField name="qualification=B.Tech"/>
									<MiningField name="qualification=BA"/>
									<MiningField name="qualification=Diploma"/>
									<MiningField name="branch=Arts"/>
									<MiningField name="branch=Civil"/>
									<MiningField name="branch=Elec"/>
								</MiningSchema>
								<Node score="-0.0316621671483459">
									<True/>
									<Node score="-0.031977927151366055">
										<SimplePredicate field="R3_branch_match" operator="greaterThan" value="1.0000000180025095E-35"/>
										<Node score="0.05603005568698112">
											<SimplePredicate field="R1_qual_met" operator="greaterThan" value="1.0000000180025095E-35"/>
										</Node>
									</Node>
									<Node score="-0.029862465711415615">
										<SimplePredicate field="R1_qual_met" operator="greaterThan" value="1.0000000180025095E-35"/>
									</Node>
									<Node score="-0.09014723940628001">
										<SimplePredicate field="distance_km" operator="greaterThan" value="2030.773650274293"/>
										<Node score="-0.028244315518444914">
											<SimplePredicate field="distance_km" operator="greaterThan" value="2071.5918590319448"/>
											<Node score="0.030294960418778195">
												<SimplePredicate field="branch=Arts" operator="greaterThan" value="1.0000000180025095E-35"/>
												<Node score="0.12171576065658932">
													<SimplePredicate field="qualification=B.Tech" operator="greaterThan" value="1.0000000180025095E-35"/>
												</Node>
												<Node score="0.16907925770792245">
